<?xml version="1.0"?>
<opencv_storage>
<cascade>
  <stageType>BOOST</stageType>
  <featureType>HAAR</featureType>
  <height>46</height>
  <width>38</width>
  <stageParams>
    <boostType>GAB</boostType>
    <minHitRate>9.9500000476837158e-01</minHitRate>
    <maxFalseAlarm>5.0000000000000000e-01</maxFalseAlarm>
    <weightTrimRate>9.4999998807907104e-01</weightTrimRate>
    <maxDepth>1</maxDepth>
    <maxWeakCount>100</maxWeakCount></stageParams>
  <featureParams>
    <maxCatCount>0</maxCatCount>
    <featSize>1</featSize>
    <mode>BASIC</mode></featureParams>
  <stageNum>5</stageNum>
  <stages>
    <!-- stage 0 -->
    <_>
      <maxWeakCount>4</maxWeakCount>
      <stageThreshold>-1.2008113861083984e+00</stageThreshold>
      <weakClassifiers>
        <_>
          <internalNodes>
            0 -1 13 -4.4340770691633224e-03</internalNodes>
          <leafValues>
            5.4545456171035767e-01 -7.3726540803909302e-01</leafValues></_>
        <_>
          <internalNodes>
            0 -1 14 2.4589844979345798e-03</internalNodes>
          <leafValues>
            -5.4454493522644043e-01 6.3533228635787964e-01</leafValues></_>
        <_>
          <internalNodes>
            0 -1 1 -3.5075090825557709e-02</internalNodes>
          <leafValues>
            6.2821245193481445e-01 -4.7571557760238647e-01</leafValues></_>
        <_>
          <internalNodes>
            0 -1 16 1.7255658283829689e-02</internalNodes>
          <leafValues>
            -5.4721355438232422e-01 5.5976355075836182e-01</leafValues></_></weakClassifiers></_>
    <!-- stage 1 -->
    <_>
      <maxWeakCount>5</maxWeakCount>
      <stageThreshold>-8.7123697996139526e-01</stageThreshold>
      <weakClassifiers>
        <_>
          <internalNodes>
            0 -1 7 -5.0179325044155121e-02</internalNodes>
          <leafValues>
            2.1818181872367859e-01 -7.7850162982940674e-01</leafValues></_>
        <_>
          <internalNodes>
            0 -1 6 -2.7114067226648331e-02</internalNodes>
          <leafValues>
            5.7487356662750244e-01 -5.4735249280929565e-01</leafValues></_>
        <_>
          <internalNodes>
            0 -1 17 3.5450528375804424e-03</internalNodes>
          <leafValues>
            -4.3724271655082703e-01 5.9958934783935547e-01</leafValues></_>
        <_>
          <internalNodes>
            0 -1 4 -1.0921882092952728e-01</internalNodes>
          <leafValues>
            3.5778942704200745e-01 -7.1305900812149048e-01</leafValues></_>
        <_>
          <internalNodes>
            0 -1 12 4.9880659207701683e-03</internalNodes>
          <leafValues>
            -4.2859664559364319e-01 6.8210494518280029e-01</leafValues></_></weakClassifiers></_>
    <!-- stage 2 -->
    <_>
      <maxWeakCount>7</maxWeakCount>
      <stageThreshold>-9.0352392196655273e-01</stageThreshold>
      <weakClassifiers>
        <_>
          <internalNodes>
            0 -1 18 -1.2701505329459906e-03</internalNodes>
          <leafValues>
            7.4193549156188965e-01 -5.9907835721969604e-01</leafValues></_>
        <_>
          <internalNodes>
            0 -1 3 -1.0919550061225891e-01</internalNodes>
          <leafValues>
            6.3378524780273438e-01 -5.4087275266647339e-01</leafValues></_>
        <_>
          <internalNodes>
            0 -1 2 1.8936619744636118e-04</internalNodes>
          <leafValues>
            4.4545522332191467e-01 -7.5623047351837158e-01</leafValues></_>
        <_>
          <internalNodes>
            0 -1 19 -6.7051843507215381e-04</internalNodes>
          <leafValues>
            8.9738988876342773e-01 -3.7019097805023193e-01</leafValues></_>
        <_>
          <internalNodes>
            0 -1 9 2.5374570395797491e-04</internalNodes>
          <leafValues>
            -3.0513945221900940e-01 8.5013711452484131e-01</leafValues></_>
        <_>
          <internalNodes>
            0 -1 8 -9.1751851141452789e-03</internalNodes>
          <leafValues>
            8.5710936784744263e-01 -2.7206933498382568e-01</leafValues></_>
        <_>
          <internalNodes>
            0 -1 15 2.3663982748985291e-02</internalNodes>
          <leafValues>
            -3.6377930641174316e-01 7.9299926757812500e-01</leafValues></_></weakClassifiers></_>
    <!-- stage 3 -->
    <_>
      <maxWeakCount>4</maxWeakCount>
      <stageThreshold>-1.3073869943618774e+00</stageThreshold>
      <weakClassifiers>
        <_>
          <internalNodes>
            0 -1 11 5.1038987294305116e-05</internalNodes>
          <leafValues>
            1. -8.3163267374038696e-01</leafValues></_>
        <_>
          <internalNodes>
            0 -1 20 -3.7340167909860611e-03</internalNodes>
          <leafValues>
            1. -6.9320333003997803e-01</leafValues></_>
        <_>
          <internalNodes>
            0 -1 5 -8.5457875684369355e-05</internalNodes>
          <leafValues>
            -5.5022996664047241e-01 1.</leafValues></_>
        <_>
          <internalNodes>
            0 -1 10 -4.3357918038964272e-03</internalNodes>
          <leafValues>
            7.6767897605895996e-01 -7.7983725070953369e-01</leafValues></_></weakClassifiers></_>
    <!-- stage 4 -->
    <_>
      <maxWeakCount>1</maxWeakCount>
      <stageThreshold>1.</stageThreshold>
      <weakClassifiers>
        <_>
          <internalNodes>
            0 -1 0 -3.8664102554321289e-02</internalNodes>
          <leafValues>
            -1. 1.</leafValues></_></weakClassifiers></_></stages>
  <features>
    <_>
      <rects>
        <_>
          0 0 8 21 -1.</_>
        <_>
          4 0 4 21 2.</_></rects>
      <tilted>0</tilted></_>
    <_>
      <rects>
        <_>
          1 13 20 16 -1.</_>
        <_>
          11 13 10 16 2.</_></rects>
      <tilted>0</tilted></_>
    <_>
      <rects>
        <_>
          2 7 4 5 -1.</_>
        <_>
          4 7 2 5 2.</_></rects>
      <tilted>0</tilted></_>
    <_>
      <rects>
        <_>
          4 13 33 25 -1.</_>
        <_>
          15 13 11 25 3.</_></rects>
      <tilted>0</tilted></_>
    <_>
      <rects>
        <_>
          5 6 31 28 -1.</_>
        <_>
          5 20 31 14 2.</_></rects>
      <tilted>0</tilted></_>
    <_>
      <rects>
        <_>
          5 13 3 7 -1.</_>
        <_>
          6 13 1 7 3.</_></rects>
      <tilted>0</tilted></_>
    <_>
      <rects>
        <_>
          6 9 14 21 -1.</_>
        <_>
          13 9 7 21 2.</_></rects>
      <tilted>0</tilted></_>
    <_>
      <rects>
        <_>
          8 7 15 20 -1.</_>
        <_>
          8 17 15 10 2.</_></rects>
      <tilted>0</tilted></_>
    <_>
      <rects>
        <_>
          9 10 6 29 -1.</_>
        <_>
          12 10 3 29 2.</_></rects>
      <tilted>0</tilted></_>
    <_>
      <rects>
        <_>
          10 0 22 2 -1.</_>
        <_>
          10 0 11 1 2.</_>
        <_>
          21 1 11 1 2.</_></rects>
      <tilted>0</tilted></_>
    <_>
      <rects>
        <_>
          10 3 1 38 -1.</_>
        <_>
          10 22 1 19 2.</_></rects>
      <tilted>0</tilted></_>
    <_>
      <rects>
        <_>
          12 5 2 2 -1.</_>
        <_>
          13 5 1 2 2.</_></rects>
      <tilted>0</tilted></_>
    <_>
      <rects>
        <_>
          14 29 12 12 -1.</_>
        <_>
          14 29 6 6 2.</_>
        <_>
          20 35 6 6 2.</_></rects>
      <tilted>0</tilted></_>
    <_>
      <rects>
        <_>
          20 7 1 18 -1.</_>
        <_>
          20 16 1 9 2.</_></rects>
      <tilted>0</tilted></_>
    <_>
      <rects>
        <_>
          24 24 8 5 -1.</_>
        <_>
          28 24 4 5 2.</_></rects>
      <tilted>0</tilted></_>
    <_>
      <rects>
        <_>
          25 0 12 32 -1.</_>
        <_>
          31 0 6 32 2.</_></rects>
      <tilted>0</tilted></_>
    <_>
      <rects>
        <_>
          26 6 12 32 -1.</_>
        <_>
          32 6 6 32 2.</_></rects>
      <tilted>0</tilted></_>
    <_>
      <rects>
        <_>
          26 19 6 13 -1.</_>
        <_>
          29 19 3 13 2.</_></rects>
      <tilted>0</tilted></_>
    <_>
      <rects>
        <_>
          26 23 8 6 -1.</_>
        <_>
          26 25 8 2 3.</_></rects>
      <tilted>0</tilted></_>
    <_>
      <rects>
        <_>
          28 19 3 6 -1.</_>
        <_>
          28 21 3 2 3.</_></rects>
      <tilted>0</tilted></_>
    <_>
      <rects>
        <_>
          31 15 2 24 -1.</_>
        <_>
          31 27 2 12 2.</_></rects>
      <tilted>0</tilted></_></features></cascade>
</opencv_storage>
